Language model created by QuickLM on Sat Jun 17 21:18:48 EDT 2017
Copyright (c) 1996-2010 Carnegie Mellon University and Alexander I. Rudnicky

The model is in standard ARPA format, designed by Doug Paul while he was at MITRE.

The code that was used to produce this language model is available in Open Source.
Please visit http://www.speech.cs.cmu.edu/tools/ for more information

The (fixed) discount mass is 0.5. The backoffs are computed using the ratio method.
This model based on a corpus of 9 sentences and 18 words

\data\
ngram 1=18
ngram 2=27
ngram 3=22

\1-grams:
-0.9803 </s> -0.3010
-0.9803 <s> -0.2473
-1.9345 E-MAIL -0.2530
-1.9345 EGG -0.2960
-1.6335 GOOGLE -0.2416
-1.9345 INFORMATION -0.2530
-1.3324 ME -0.2803
-1.6335 MUSIC -0.2473
-1.6335 OPEN -0.2803
-1.9345 PLAYER -0.2530
-1.9345 SEND -0.2960
-1.9345 SET -0.2960
-1.3324 SHOW -0.2803
-1.9345 SYSTEM -0.2960
-1.9345 TEMPS -0.2530
-1.9345 TERMPERATURES -0.2530
-1.9345 TIMER -0.2530
-1.9345 WEATHER -0.2530

\2-grams:
-1.2553 <s> GOOGLE -0.1761
-0.9542 <s> OPEN 0.0000
-1.2553 <s> SEND 0.0000
-1.2553 <s> SET 0.0000
-0.6532 <s> SHOW 0.0000
-0.3010 E-MAIL </s> -0.3010
-0.3010 EGG TIMER 0.0000
-0.6021 GOOGLE </s> -0.3010
-0.6021 GOOGLE MUSIC -0.1761
-0.3010 INFORMATION </s> -0.3010
-0.9031 ME SYSTEM 0.0000
-0.9031 ME TEMPS 0.0000
-0.9031 ME TERMPERATURES 0.0000
-0.9031 ME WEATHER 0.0000
-0.6021 MUSIC </s> -0.3010
-0.6021 MUSIC PLAYER 0.0000
-0.6021 OPEN GOOGLE -0.1761
-0.6021 OPEN MUSIC -0.1761
-0.3010 PLAYER </s> -0.3010
-0.3010 SEND E-MAIL 0.0000
-0.3010 SET EGG 0.0000
-0.3010 SHOW ME 0.0000
-0.3010 SYSTEM INFORMATION 0.0000
-0.3010 TEMPS </s> -0.3010
-0.3010 TERMPERATURES </s> -0.3010
-0.3010 TIMER </s> -0.3010
-0.3010 WEATHER </s> -0.3010

\3-grams:
-0.3010 <s> GOOGLE </s>
-0.6021 <s> OPEN GOOGLE
-0.6021 <s> OPEN MUSIC
-0.3010 <s> SEND E-MAIL
-0.3010 <s> SET EGG
-0.3010 <s> SHOW ME
-0.3010 EGG TIMER </s>
-0.3010 GOOGLE MUSIC </s>
-0.3010 ME SYSTEM INFORMATION
-0.3010 ME TEMPS </s>
-0.3010 ME TERMPERATURES </s>
-0.3010 ME WEATHER </s>
-0.3010 MUSIC PLAYER </s>
-0.3010 OPEN GOOGLE MUSIC
-0.3010 OPEN MUSIC PLAYER
-0.3010 SEND E-MAIL </s>
-0.3010 SET EGG TIMER
-0.9031 SHOW ME SYSTEM
-0.9031 SHOW ME TEMPS
-0.9031 SHOW ME TERMPERATURES
-0.9031 SHOW ME WEATHER
-0.3010 SYSTEM INFORMATION </s>

\end\
