Language model created by QuickLM on Sun Jun 18 01:43:16 EDT 2017
Copyright (c) 1996-2010 Carnegie Mellon University and Alexander I. Rudnicky

The model is in standard ARPA format, designed by Doug Paul while he was at MITRE.

The code that was used to produce this language model is available in Open Source.
Please visit http://www.speech.cs.cmu.edu/tools/ for more information

The (fixed) discount mass is 0.5. The backoffs are computed using the ratio method.
This model based on a corpus of 13 sentences and 27 words

\data\
ngram 1=27
ngram 2=39
ngram 3=34

\1-grams:
-0.9933 </s> -0.3010
-0.9933 <s> -0.2545
-2.1072 AM -0.2976
-2.1072 CONNECTED -0.2976
-2.1072 E-MAIL -0.2545
-2.1072 EGG -0.2976
-1.8062 GOOGLE -0.2469
-2.1072 I -0.2545
-2.1072 INFORMATION -0.2545
-1.8062 LIGHTS -0.2545
-1.5051 ME -0.2872
-1.8062 MUSIC -0.2507
-2.1072 OFF -0.2942
-2.1072 ON -0.2942
-1.6301 OPEN -0.2872
-2.1072 PLAYER -0.2545
-2.1072 SEND -0.2976
-2.1072 SET -0.2976
-1.4082 SHOW -0.2837
-2.1072 SYSTEM -0.2976
-2.1072 TEMPERATURES -0.2545
-2.1072 TEMPS -0.2545
-2.1072 TIMER -0.2545
-1.8062 TURN -0.2942
-2.1072 USER -0.2545
-2.1072 WEATHER -0.2545
-2.1072 WHERE -0.2976

\2-grams:
-0.9379 <s> OPEN 0.0000
-1.4150 <s> SEND 0.0000
-1.4150 <s> SET 0.0000
-0.7160 <s> SHOW 0.0000
-1.1139 <s> TURN 0.0000
-1.4150 <s> WHERE 0.0000
-0.3010 AM I 0.0000
-0.3010 CONNECTED USER 0.0000
-0.3010 E-MAIL </s> -0.3010
-0.3010 EGG TIMER 0.0000
-0.6021 GOOGLE </s> -0.3010
-0.6021 GOOGLE MUSIC -0.1761
-0.3010 I </s> -0.3010
-0.3010 INFORMATION </s> -0.3010
-0.3010 LIGHTS </s> -0.3010
-0.9031 ME SYSTEM 0.0000
-0.9031 ME TEMPERATURES 0.0000
-0.9031 ME TEMPS 0.0000
-0.9031 ME WEATHER 0.0000
-0.6021 MUSIC </s> -0.3010
-0.6021 MUSIC PLAYER 0.0000
-0.3010 OFF LIGHTS 0.0000
-0.3010 ON LIGHTS 0.0000
-0.4771 OPEN GOOGLE 0.0000
-0.7782 OPEN MUSIC -0.1761
-0.3010 PLAYER </s> -0.3010
-0.3010 SEND E-MAIL 0.0000
-0.3010 SET EGG 0.0000
-1.0000 SHOW CONNECTED 0.0000
-0.3979 SHOW ME 0.0000
-0.3010 SYSTEM INFORMATION 0.0000
-0.3010 TEMPERATURES </s> -0.3010
-0.3010 TEMPS </s> -0.3010
-0.3010 TIMER </s> -0.3010
-0.6021 TURN OFF 0.0000
-0.6021 TURN ON 0.0000
-0.3010 USER </s> -0.3010
-0.3010 WEATHER </s> -0.3010
-0.3010 WHERE AM 0.0000

\3-grams:
-0.4771 <s> OPEN GOOGLE
-0.7782 <s> OPEN MUSIC
-0.3010 <s> SEND E-MAIL
-0.3010 <s> SET EGG
-1.0000 <s> SHOW CONNECTED
-0.3979 <s> SHOW ME
-0.6021 <s> TURN OFF
-0.6021 <s> TURN ON
-0.3010 <s> WHERE AM
-0.3010 AM I </s>
-0.3010 CONNECTED USER </s>
-0.3010 EGG TIMER </s>
-0.3010 GOOGLE MUSIC </s>
-0.3010 ME SYSTEM INFORMATION
-0.3010 ME TEMPERATURES </s>
-0.3010 ME TEMPS </s>
-0.3010 ME WEATHER </s>
-0.3010 MUSIC PLAYER </s>
-0.3010 OFF LIGHTS </s>
-0.3010 ON LIGHTS </s>
-0.6021 OPEN GOOGLE </s>
-0.6021 OPEN GOOGLE MUSIC
-0.3010 OPEN MUSIC PLAYER
-0.3010 SEND E-MAIL </s>
-0.3010 SET EGG TIMER
-0.3010 SHOW CONNECTED USER
-0.9031 SHOW ME SYSTEM
-0.9031 SHOW ME TEMPERATURES
-0.9031 SHOW ME TEMPS
-0.9031 SHOW ME WEATHER
-0.3010 SYSTEM INFORMATION </s>
-0.3010 TURN OFF LIGHTS
-0.3010 TURN ON LIGHTS
-0.3010 WHERE AM I

\end\
